\data\
ngram 1=300
ngram 2=594
ngram 3=297
ngram 4=0
ngram 5=0

\1-grams:
-3.0733664	<unk>	0
0	<s>	-0.30103
-0.30249226	</s>	0
-2.7730608	آموزش	-0.30103
-2.7730608	آرزو	-0.30103
-2.7730608	امیدوار	-0.30103
-2.7730608	اعتماد	-0.30103
-2.7730608	اقتصادی	-0.30103
-2.7730608	استقلال	-0.30103
-2.7730608	انرژی	-0.30103
-2.7730608	اندیشه	-0.30103
-2.7730608	اصفهان	-0.30103
-2.7730608	ارتش	-0.30103
-2.7730608	اسرار	-0.30103
-2.7730608	ارتفاع	-0.30103
-2.7730608	ارتحال	-0.30103
-2.7730608	اعلام	-0.30103
-2.7730608	اندازه	-0.30103
-2.7730608	افزایش	-0.30103
-2.7730608	اهریمن	-0.30103
-2.7730608	ارادت	-0.30103
-2.7730608	اماکن	-0.30103
-2.7730608	ارتقا	-0.30103
-2.7730608	اینترنت	-0.30103
-2.7730608	اجتماعی	-0.30103
-2.7730608	اشتغال	-0.30103
-2.7730608	اردیبهشت	-0.30103
-2.7730608	آبان	-0.30103
-2.7730608	آذر	-0.30103
-2.7730608	اسفند	-0.30103
-2.7730608	بانک	-0.30103
-2.7730608	برخورد	-0.30103
-2.7730608	بزرگان	-0.30103
-2.7730608	بیعانه	-0.30103
-2.7730608	بازنویسی	-0.30103
-2.7730608	بازار	-0.30103
-2.7730608	بیمارستان	-0.30103
-2.7730608	بیهوده	-0.30103
-2.7730608	بیگانه	-0.30103
-2.7730608	بیننده	-0.30103
-2.7730608	بازخواست	-0.30103
-2.7730608	بازداشت	-0.30103
-2.7730608	باند	-0.30103
-2.7730608	باران	-0.30103
-2.7730608	بورس	-0.30103
-2.7730608	بیداد	-0.30103
-2.7730608	بهمن	-0.30103
-2.7730608	پذیرش	-0.30103
-2.7730608	پرواز	-0.30103
-2.7730608	پروژه	-0.30103
-2.7730608	پژوهش	-0.30103
-2.7730608	پرسپولیس	-0.30103
-2.7730608	پیامک	-0.30103
-2.7730608	پاداش	-0.30103
-2.7730608	پیشنهاد	-0.30103
-2.7730608	پیدایش	-0.30103
-2.7730608	پدیده	-0.30103
-2.7730608	پنجشنبه	-0.30103
-2.7730608	تعریف	-0.30103
-2.7730608	توصیه	-0.30103
-2.7730608	تلاش	-0.30103
-2.7730608	تندیس	-0.30103
-2.7730608	تابلو	-0.30103
-2.7730608	ترازو	-0.30103
-2.7730608	تفنگ	-0.30103
-2.7730608	تدوین	-0.30103
-2.7730608	تورم	-0.30103
-2.7730608	تمرین	-0.30103
-2.7730608	تگرگ	-0.30103
-2.7730608	تثبیت	-0.30103
-2.7730608	ثریا	-0.30103
-2.7730608	تهران	-0.30103
-2.7730608	ثروتمند	-0.30103
-2.7730608	ثابت	-0.30103
-2.7730608	جمهوری	-0.30103
-2.7730608	جوانان	-0.30103
-2.7730608	جشنواره	-0.30103
-2.7730608	جنایت	-0.30103
-2.7730608	جالب	-0.30103
-2.7730608	جریان	-0.30103
-2.7730608	جمعه	-0.30103
-2.7730608	چالش	-0.30103
-2.7730608	چلچراغ	-0.30103
-2.7730608	چرمی	-0.30103
-2.7730608	چرخش	-0.30103
-2.7730608	چهره	-0.30103
-2.7730608	چشمه	-0.30103
-2.7730608	حقیقت	-0.30103
-2.7730608	حضوری	-0.30103
-2.7730608	حسادت	-0.30103
-2.7730608	حریص	-0.30103
-2.7730608	حلال	-0.30103
-2.7730608	حکومت	-0.30103
-2.7730608	حکیم	-0.30103
-2.7730608	حمزه	-0.30103
-2.7730608	حاکم	-0.30103
-2.7730608	حیرت	-0.30103
-2.7730608	حوضچه	-0.30103
-2.7730608	خاموش	-0.30103
-2.7730608	خرچنگ	-0.30103
-2.7730608	خداحافظ	-0.30103
-2.7730608	خرگوش	-0.30103
-2.7730608	خنثی	-0.30103
-2.7730608	خطرناک	-0.30103
-2.7730608	خوشایند	-0.30103
-2.7730608	خودکامگی	-0.30103
-2.7730608	خوراک	-0.30103
-2.7730608	خونسرد	-0.30103
-2.7730608	خصوصی	-0.30103
-2.7730608	خرداد	-0.30103
-2.7730608	دریا	-0.30103
-2.7730608	دانشگاه	-0.30103
-2.7730608	دادگاه	-0.30103
-2.7730608	دادسرا	-0.30103
-2.7730608	دعوت	-0.30103
-2.7730608	دلتنگی	-0.30103
-2.7730608	دلیر	-0.30103
-2.7730608	دیدار	-0.30103
-2.7730608	دشمن	-0.30103
-2.7730608	دوبله	-0.30103
-2.7730608	درد	-0.30103
-2.7730608	دماوند	-0.30103
-2.7730608	دوشنبه	-0.30103
-2.7730608	ذهن	-0.30103
-2.7730608	ذوب	-0.30103
-2.7730608	رانش	-0.30103
-2.7730608	ریاکار	-0.30103
-2.7730608	رباخوار	-0.30103
-2.7730608	راستی	-0.30103
-2.7730608	رنگارنگ	-0.30103
-2.7730608	رودخانه	-0.30103
-2.7730608	رویا	-0.30103
-2.7730608	رضایت	-0.30103
-2.7730608	ریسک	-0.30103
-2.7730608	ریحان	-0.30103
-2.7730608	رهگذر	-0.30103
-2.7730608	رهسپار	-0.30103
-2.7730608	زراعت	-0.30103
-2.7730608	زیبایی	-0.30103
-2.7730608	زنجیر	-0.30103
-2.7730608	زکاوت	-0.30103
-2.7730608	زلال	-0.30103
-2.7730608	سیاسی	-0.30103
-2.7730608	ساختمان	-0.30103
-2.7730608	سلامتی	-0.30103
-2.7730608	سرمایه	-0.30103
-2.7730608	سنجش	-0.30103
-2.7730608	سخنران	-0.30103
-2.7730608	سوگند	-0.30103
-2.7730608	سپاسگزاری	-0.30103
-2.7730608	سوگواری	-0.30103
-2.7730608	سپید	-0.30103
-2.7730608	سوادکوه	-0.30103
-2.7730608	سیاهی	-0.30103
-2.7730608	شهرستان	-0.30103
-2.7730608	شایسته	-0.30103
-2.7730608	شیراز	-0.30103
-2.7730608	شادی	-0.30103
-2.7730608	شناسنامه	-0.30103
-2.7730608	شکارچی	-0.30103
-2.7730608	شعر	-0.30103
-2.7730608	شیرین	-0.30103
-2.7730608	شریف	-0.30103
-2.7730608	شنبه	-0.30103
-2.7730608	شهریور	-0.30103
-2.7730608	صبحانه	-0.30103
-2.7730608	صاحب	-0.30103
-2.7730608	صبر	-0.30103
-2.7730608	صداقت	-0.30103
-2.7730608	صورت	-0.30103
-2.7730608	ضابطه	-0.30103
-2.7730608	ضربه	-0.30103
-2.7730608	ضامن	-0.30103
-2.7730608	ضمانت	-0.30103
-2.7730608	طبیب	-0.30103
-2.7730608	طلبه	-0.30103
-2.7730608	طوطی	-0.30103
-2.7730608	طوفان	-0.30103
-2.7730608	طناب	-0.30103
-2.7730608	طنز	-0.30103
-2.7730608	ظاهر	-0.30103
-2.7730608	ظالم	-0.30103
-2.7730608	ظرافت	-0.30103
-2.7730608	غروب	-0.30103
-2.7730608	غلبه	-0.30103
-2.7730608	غیرت	-0.30103
-2.7730608	غرور	-0.30103
-2.7730608	غذا	-0.30103
-2.7730608	عزیز	-0.30103
-2.7730608	عزت	-0.30103
-2.7730608	عشق	-0.30103
-2.7730608	عرصه	-0.30103
-2.7730608	عابر	-0.30103
-2.7730608	عاقل	-0.30103
-2.7730608	عکاس	-0.30103
-2.7730608	عشایر	-0.30103
-2.7730608	فرصت	-0.30103
-2.7730608	عباس	-0.30103
-2.7730608	عادل	-0.30103
-2.7730608	عروسک	-0.30103
-2.7730608	عطش	-0.30103
-2.7730608	فوتبال	-0.30103
-2.7730608	فاتح	-0.30103
-2.7730608	فروردین	-0.30103
-2.7730608	فیلم	-0.30103
-2.7730608	قوت	-0.30103
-2.7730608	قضاوت	-0.30103
-2.7730608	قانع	-0.30103
-2.7730608	قسمت	-0.30103
-2.7730608	قهوه	-0.30103
-2.7730608	قبیله	-0.30103
-2.7730608	کودکان	-0.30103
-2.7730608	کارگر	-0.30103
-2.7730608	کمانچه	-0.30103
-2.7730608	کعبه	-0.30103
-2.7730608	گذرگاه	-0.30103
-2.7730608	گسترش	-0.30103
-2.7730608	گمشده	-0.30103
-2.7730608	گوینده	-0.30103
-2.7730608	گلایه	-0.30103
-2.7730608	گوسفند	-0.30103
-2.7730608	گارد	-0.30103
-2.7730608	گیلان	-0.30103
-2.7730608	گرسنه	-0.30103
-2.7730608	لایق	-0.30103
-2.7730608	لطیف	-0.30103
-2.7730608	لیست	-0.30103
-2.7730608	لرستان	-0.30103
-2.7730608	لیلا	-0.30103
-2.7730608	لارستان	-0.30103
-2.7730608	لوله	-0.30103
-2.7730608	موسیقی	-0.30103
-2.7730608	موزیک	-0.30103
-2.7730608	مورچه	-0.30103
-2.7730608	مطالب	-0.30103
-2.7730608	مشغول	-0.30103
-2.7730608	معذور	-0.30103
-2.7730608	محمد	-0.30103
-2.7730608	مصطفی	-0.30103
-2.7730608	مرضیه	-0.30103
-2.7730608	مادر	-0.30103
-2.7730608	مهربان	-0.30103
-2.7730608	مدیترانه	-0.30103
-2.7730608	منشور	-0.30103
-2.7730608	مزاحمت	-0.30103
-2.7730608	ممنون	-0.30103
-2.7730608	معادن	-0.30103
-2.7730608	مغرور	-0.30103
-2.7730608	مصرف	-0.30103
-2.7730608	مرداد	-0.30103
-2.7730608	موج	-0.30103
-2.7730608	مصدوم	-0.30103
-2.7730608	مثلث	-0.30103
-2.7730608	نجیب	-0.30103
-2.7730608	نگاه	-0.30103
-2.7730608	نیکان	-0.30103
-2.7730608	نگرش	-0.30103
-2.7730608	نادان	-0.30103
-2.7730608	نیاکان	-0.30103
-2.7730608	نهر	-0.30103
-2.7730608	نغمه	-0.30103
-2.7730608	ناجا	-0.30103
-2.7730608	نجابت	-0.30103
-2.7730608	نظام	-0.30103
-2.7730608	نشاط	-0.30103
-2.7730608	نقاش	-0.30103
-2.7730608	نظارت	-0.30103
-2.7730608	واقعی	-0.30103
-2.7730608	واردات	-0.30103
-2.7730608	واجب	-0.30103
-2.7730608	واریزی	-0.30103
-2.7730608	وعده	-0.30103
-2.7730608	وفاداری	-0.30103
-2.7730608	وضعیت	-0.30103
-2.7730608	ورزش	-0.30103
-2.7730608	وزارت	-0.30103
-2.7730608	وسایل	-0.30103
-2.7730608	وکیل	-0.30103
-2.7730608	وظیفه	-0.30103
-2.7730608	ورود	-0.30103
-2.7730608	همایش	-0.30103
-2.7730608	همراهی	-0.30103
-2.7730608	هوشمند	-0.30103
-2.7730608	هماهنگ	-0.30103
-2.7730608	هندسه	-0.30103
-2.7730608	هادی	-0.30103
-2.7730608	همت	-0.30103
-2.7730608	هستی	-0.30103
-2.7730608	هنگام	-0.30103
-2.7730608	هدایت	-0.30103
-2.7730608	یادداشت	-0.30103
-2.7730608	یورش	-0.30103
-2.7730608	یکشنبه	-0.30103
-2.7730608	یونان	-0.30103
-2.7730608	یلدا	-0.30103
-2.7730608	ییلاق	-0.30103
-2.7730608	یادگار	-0.30103
-2.7730608	یکتا	-0.30103
-2.7730608	یگانه	-0.30103
-2.7730608	یقین	-0.30103

\2-grams:
-0.12542559	آموزش </s>	0
-0.12542559	آرزو </s>	0
-0.12542559	امیدوار </s>	0
-0.12542559	اعتماد </s>	0
-0.12542559	اقتصادی </s>	0
-0.12542559	استقلال </s>	0
-0.12542559	انرژی </s>	0
-0.12542559	اندیشه </s>	0
-0.12542559	اصفهان </s>	0
-0.12542559	ارتش </s>	0
-0.12542559	اسرار </s>	0
-0.12542559	ارتفاع </s>	0
-0.12542559	ارتحال </s>	0
-0.12542559	اعلام </s>	0
-0.12542559	اندازه </s>	0
-0.12542559	افزایش </s>	0
-0.12542559	اهریمن </s>	0
-0.12542559	ارادت </s>	0
-0.12542559	اماکن </s>	0
-0.12542559	ارتقا </s>	0
-0.12542559	اینترنت </s>	0
-0.12542559	اجتماعی </s>	0
-0.12542559	اشتغال </s>	0
-0.12542559	اردیبهشت </s>	0
-0.12542559	آبان </s>	0
-0.12542559	آذر </s>	0
-0.12542559	اسفند </s>	0
-0.12542559	بانک </s>	0
-0.12542559	برخورد </s>	0
-0.12542559	بزرگان </s>	0
-0.12542559	بیعانه </s>	0
-0.12542559	بازنویسی </s>	0
-0.12542559	بازار </s>	0
-0.12542559	بیمارستان </s>	0
-0.12542559	بیهوده </s>	0
-0.12542559	بیگانه </s>	0
-0.12542559	بیننده </s>	0
-0.12542559	بازخواست </s>	0
-0.12542559	بازداشت </s>	0
-0.12542559	باند </s>	0
-0.12542559	باران </s>	0
-0.12542559	بورس </s>	0
-0.12542559	بیداد </s>	0
-0.12542559	بهمن </s>	0
-0.12542559	پذیرش </s>	0
-0.12542559	پرواز </s>	0
-0.12542559	پروژه </s>	0
-0.12542559	پژوهش </s>	0
-0.12542559	پرسپولیس </s>	0
-0.12542559	پیامک </s>	0
-0.12542559	پاداش </s>	0
-0.12542559	پیشنهاد </s>	0
-0.12542559	پیدایش </s>	0
-0.12542559	پدیده </s>	0
-0.12542559	پنجشنبه </s>	0
-0.12542559	تعریف </s>	0
-0.12542559	توصیه </s>	0
-0.12542559	تلاش </s>	0
-0.12542559	تندیس </s>	0
-0.12542559	تابلو </s>	0
-0.12542559	ترازو </s>	0
-0.12542559	تفنگ </s>	0
-0.12542559	تدوین </s>	0
-0.12542559	تورم </s>	0
-0.12542559	تمرین </s>	0
-0.12542559	تگرگ </s>	0
-0.12542559	تثبیت </s>	0
-0.12542559	ثریا </s>	0
-0.12542559	تهران </s>	0
-0.12542559	ثروتمند </s>	0
-0.12542559	ثابت </s>	0
-0.12542559	جمهوری </s>	0
-0.12542559	جوانان </s>	0
-0.12542559	جشنواره </s>	0
-0.12542559	جنایت </s>	0
-0.12542559	جالب </s>	0
-0.12542559	جریان </s>	0
-0.12542559	جمعه </s>	0
-0.12542559	چالش </s>	0
-0.12542559	چلچراغ </s>	0
-0.12542559	چرمی </s>	0
-0.12542559	چرخش </s>	0
-0.12542559	چهره </s>	0
-0.12542559	چشمه </s>	0
-0.12542559	حقیقت </s>	0
-0.12542559	حضوری </s>	0
-0.12542559	حسادت </s>	0
-0.12542559	حریص </s>	0
-0.12542559	حلال </s>	0
-0.12542559	حکومت </s>	0
-0.12542559	حکیم </s>	0
-0.12542559	حمزه </s>	0
-0.12542559	حاکم </s>	0
-0.12542559	حیرت </s>	0
-0.12542559	حوضچه </s>	0
-0.12542559	خاموش </s>	0
-0.12542559	خرچنگ </s>	0
-0.12542559	خداحافظ </s>	0
-0.12542559	خرگوش </s>	0
-0.12542559	خنثی </s>	0
-0.12542559	خطرناک </s>	0
-0.12542559	خوشایند </s>	0
-0.12542559	خودکامگی </s>	0
-0.12542559	خوراک </s>	0
-0.12542559	خونسرد </s>	0
-0.12542559	خصوصی </s>	0
-0.12542559	خرداد </s>	0
-0.12542559	دریا </s>	0
-0.12542559	دانشگاه </s>	0
-0.12542559	دادگاه </s>	0
-0.12542559	دادسرا </s>	0
-0.12542559	دعوت </s>	0
-0.12542559	دلتنگی </s>	0
-0.12542559	دلیر </s>	0
-0.12542559	دیدار </s>	0
-0.12542559	دشمن </s>	0
-0.12542559	دوبله </s>	0
-0.12542559	درد </s>	0
-0.12542559	دماوند </s>	0
-0.12542559	دوشنبه </s>	0
-0.12542559	ذهن </s>	0
-0.12542559	ذوب </s>	0
-0.12542559	رانش </s>	0
-0.12542559	ریاکار </s>	0
-0.12542559	رباخوار </s>	0
-0.12542559	راستی </s>	0
-0.12542559	رنگارنگ </s>	0
-0.12542559	رودخانه </s>	0
-0.12542559	رویا </s>	0
-0.12542559	رضایت </s>	0
-0.12542559	ریسک </s>	0
-0.12542559	ریحان </s>	0
-0.12542559	رهگذر </s>	0
-0.12542559	رهسپار </s>	0
-0.12542559	زراعت </s>	0
-0.12542559	زیبایی </s>	0
-0.12542559	زنجیر </s>	0
-0.12542559	زکاوت </s>	0
-0.12542559	زلال </s>	0
-0.12542559	سیاسی </s>	0
-0.12542559	ساختمان </s>	0
-0.12542559	سلامتی </s>	0
-0.12542559	سرمایه </s>	0
-0.12542559	سنجش </s>	0
-0.12542559	سخنران </s>	0
-0.12542559	سوگند </s>	0
-0.12542559	سپاسگزاری </s>	0
-0.12542559	سوگواری </s>	0
-0.12542559	سپید </s>	0
-0.12542559	سوادکوه </s>	0
-0.12542559	سیاهی </s>	0
-0.12542559	شهرستان </s>	0
-0.12542559	شایسته </s>	0
-0.12542559	شیراز </s>	0
-0.12542559	شادی </s>	0
-0.12542559	شناسنامه </s>	0
-0.12542559	شکارچی </s>	0
-0.12542559	شعر </s>	0
-0.12542559	شیرین </s>	0
-0.12542559	شریف </s>	0
-0.12542559	شنبه </s>	0
-0.12542559	شهریور </s>	0
-0.12542559	صبحانه </s>	0
-0.12542559	صاحب </s>	0
-0.12542559	صبر </s>	0
-0.12542559	صداقت </s>	0
-0.12542559	صورت </s>	0
-0.12542559	ضابطه </s>	0
-0.12542559	ضربه </s>	0
-0.12542559	ضامن </s>	0
-0.12542559	ضمانت </s>	0
-0.12542559	طبیب </s>	0
-0.12542559	طلبه </s>	0
-0.12542559	طوطی </s>	0
-0.12542559	طوفان </s>	0
-0.12542559	طناب </s>	0
-0.12542559	طنز </s>	0
-0.12542559	ظاهر </s>	0
-0.12542559	ظالم </s>	0
-0.12542559	ظرافت </s>	0
-0.12542559	غروب </s>	0
-0.12542559	غلبه </s>	0
-0.12542559	غیرت </s>	0
-0.12542559	غرور </s>	0
-0.12542559	غذا </s>	0
-0.12542559	عزیز </s>	0
-0.12542559	عزت </s>	0
-0.12542559	عشق </s>	0
-0.12542559	عرصه </s>	0
-0.12542559	عابر </s>	0
-0.12542559	عاقل </s>	0
-0.12542559	عکاس </s>	0
-0.12542559	عشایر </s>	0
-0.12542559	فرصت </s>	0
-0.12542559	عباس </s>	0
-0.12542559	عادل </s>	0
-0.12542559	عروسک </s>	0
-0.12542559	عطش </s>	0
-0.12542559	فوتبال </s>	0
-0.12542559	فاتح </s>	0
-0.12542559	فروردین </s>	0
-0.12542559	فیلم </s>	0
-0.12542559	قوت </s>	0
-0.12542559	قضاوت </s>	0
-0.12542559	قانع </s>	0
-0.12542559	قسمت </s>	0
-0.12542559	قهوه </s>	0
-0.12542559	قبیله </s>	0
-0.12542559	کودکان </s>	0
-0.12542559	کارگر </s>	0
-0.12542559	کمانچه </s>	0
-0.12542559	کعبه </s>	0
-0.12542559	گذرگاه </s>	0
-0.12542559	گسترش </s>	0
-0.12542559	گمشده </s>	0
-0.12542559	گوینده </s>	0
-0.12542559	گلایه </s>	0
-0.12542559	گوسفند </s>	0
-0.12542559	گارد </s>	0
-0.12542559	گیلان </s>	0
-0.12542559	گرسنه </s>	0
-0.12542559	لایق </s>	0
-0.12542559	لطیف </s>	0
-0.12542559	لیست </s>	0
-0.12542559	لرستان </s>	0
-0.12542559	لیلا </s>	0
-0.12542559	لارستان </s>	0
-0.12542559	لوله </s>	0
-0.12542559	موسیقی </s>	0
-0.12542559	موزیک </s>	0
-0.12542559	مورچه </s>	0
-0.12542559	مطالب </s>	0
-0.12542559	مشغول </s>	0
-0.12542559	معذور </s>	0
-0.12542559	محمد </s>	0
-0.12542559	مصطفی </s>	0
-0.12542559	مرضیه </s>	0
-0.12542559	مادر </s>	0
-0.12542559	مهربان </s>	0
-0.12542559	مدیترانه </s>	0
-0.12542559	منشور </s>	0
-0.12542559	مزاحمت </s>	0
-0.12542559	ممنون </s>	0
-0.12542559	معادن </s>	0
-0.12542559	مغرور </s>	0
-0.12542559	مصرف </s>	0
-0.12542559	مرداد </s>	0
-0.12542559	موج </s>	0
-0.12542559	مصدوم </s>	0
-0.12542559	مثلث </s>	0
-0.12542559	نجیب </s>	0
-0.12542559	نگاه </s>	0
-0.12542559	نیکان </s>	0
-0.12542559	نگرش </s>	0
-0.12542559	نادان </s>	0
-0.12542559	نیاکان </s>	0
-0.12542559	نهر </s>	0
-0.12542559	نغمه </s>	0
-0.12542559	ناجا </s>	0
-0.12542559	نجابت </s>	0
-0.12542559	نظام </s>	0
-0.12542559	نشاط </s>	0
-0.12542559	نقاش </s>	0
-0.12542559	نظارت </s>	0
-0.12542559	واقعی </s>	0
-0.12542559	واردات </s>	0
-0.12542559	واجب </s>	0
-0.12542559	واریزی </s>	0
-0.12542559	وعده </s>	0
-0.12542559	وفاداری </s>	0
-0.12542559	وضعیت </s>	0
-0.12542559	ورزش </s>	0
-0.12542559	وزارت </s>	0
-0.12542559	وسایل </s>	0
-0.12542559	وکیل </s>	0
-0.12542559	وظیفه </s>	0
-0.12542559	ورود </s>	0
-0.12542559	همایش </s>	0
-0.12542559	همراهی </s>	0
-0.12542559	هوشمند </s>	0
-0.12542559	هماهنگ </s>	0
-0.12542559	هندسه </s>	0
-0.12542559	هادی </s>	0
-0.12542559	همت </s>	0
-0.12542559	هستی </s>	0
-0.12542559	هنگام </s>	0
-0.12542559	هدایت </s>	0
-0.12542559	یادداشت </s>	0
-0.12542559	یورش </s>	0
-0.12542559	یکشنبه </s>	0
-0.12542559	یونان </s>	0
-0.12542559	یلدا </s>	0
-0.12542559	ییلاق </s>	0
-0.12542559	یادگار </s>	0
-0.12542559	یکتا </s>	0
-0.12542559	یگانه </s>	0
-0.12542559	یقین </s>	0
-2.5993931	<s> آموزش	-0.30103
-2.5993931	<s> آرزو	-0.30103
-2.5993931	<s> امیدوار	-0.30103
-2.5993931	<s> اعتماد	-0.30103
-2.5993931	<s> اقتصادی	-0.30103
-2.5993931	<s> استقلال	-0.30103
-2.5993931	<s> انرژی	-0.30103
-2.5993931	<s> اندیشه	-0.30103
-2.5993931	<s> اصفهان	-0.30103
-2.5993931	<s> ارتش	-0.30103
-2.5993931	<s> اسرار	-0.30103
-2.5993931	<s> ارتفاع	-0.30103
-2.5993931	<s> ارتحال	-0.30103
-2.5993931	<s> اعلام	-0.30103
-2.5993931	<s> اندازه	-0.30103
-2.5993931	<s> افزایش	-0.30103
-2.5993931	<s> اهریمن	-0.30103
-2.5993931	<s> ارادت	-0.30103
-2.5993931	<s> اماکن	-0.30103
-2.5993931	<s> ارتقا	-0.30103
-2.5993931	<s> اینترنت	-0.30103
-2.5993931	<s> اجتماعی	-0.30103
-2.5993931	<s> اشتغال	-0.30103
-2.5993931	<s> اردیبهشت	-0.30103
-2.5993931	<s> آبان	-0.30103
-2.5993931	<s> آذر	-0.30103
-2.5993931	<s> اسفند	-0.30103
-2.5993931	<s> بانک	-0.30103
-2.5993931	<s> برخورد	-0.30103
-2.5993931	<s> بزرگان	-0.30103
-2.5993931	<s> بیعانه	-0.30103
-2.5993931	<s> بازنویسی	-0.30103
-2.5993931	<s> بازار	-0.30103
-2.5993931	<s> بیمارستان	-0.30103
-2.5993931	<s> بیهوده	-0.30103
-2.5993931	<s> بیگانه	-0.30103
-2.5993931	<s> بیننده	-0.30103
-2.5993931	<s> بازخواست	-0.30103
-2.5993931	<s> بازداشت	-0.30103
-2.5993931	<s> باند	-0.30103
-2.5993931	<s> باران	-0.30103
-2.5993931	<s> بورس	-0.30103
-2.5993931	<s> بیداد	-0.30103
-2.5993931	<s> بهمن	-0.30103
-2.5993931	<s> پذیرش	-0.30103
-2.5993931	<s> پرواز	-0.30103
-2.5993931	<s> پروژه	-0.30103
-2.5993931	<s> پژوهش	-0.30103
-2.5993931	<s> پرسپولیس	-0.30103
-2.5993931	<s> پیامک	-0.30103
-2.5993931	<s> پاداش	-0.30103
-2.5993931	<s> پیشنهاد	-0.30103
-2.5993931	<s> پیدایش	-0.30103
-2.5993931	<s> پدیده	-0.30103
-2.5993931	<s> پنجشنبه	-0.30103
-2.5993931	<s> تعریف	-0.30103
-2.5993931	<s> توصیه	-0.30103
-2.5993931	<s> تلاش	-0.30103
-2.5993931	<s> تندیس	-0.30103
-2.5993931	<s> تابلو	-0.30103
-2.5993931	<s> ترازو	-0.30103
-2.5993931	<s> تفنگ	-0.30103
-2.5993931	<s> تدوین	-0.30103
-2.5993931	<s> تورم	-0.30103
-2.5993931	<s> تمرین	-0.30103
-2.5993931	<s> تگرگ	-0.30103
-2.5993931	<s> تثبیت	-0.30103
-2.5993931	<s> ثریا	-0.30103
-2.5993931	<s> تهران	-0.30103
-2.5993931	<s> ثروتمند	-0.30103
-2.5993931	<s> ثابت	-0.30103
-2.5993931	<s> جمهوری	-0.30103
-2.5993931	<s> جوانان	-0.30103
-2.5993931	<s> جشنواره	-0.30103
-2.5993931	<s> جنایت	-0.30103
-2.5993931	<s> جالب	-0.30103
-2.5993931	<s> جریان	-0.30103
-2.5993931	<s> جمعه	-0.30103
-2.5993931	<s> چالش	-0.30103
-2.5993931	<s> چلچراغ	-0.30103
-2.5993931	<s> چرمی	-0.30103
-2.5993931	<s> چرخش	-0.30103
-2.5993931	<s> چهره	-0.30103
-2.5993931	<s> چشمه	-0.30103
-2.5993931	<s> حقیقت	-0.30103
-2.5993931	<s> حضوری	-0.30103
-2.5993931	<s> حسادت	-0.30103
-2.5993931	<s> حریص	-0.30103
-2.5993931	<s> حلال	-0.30103
-2.5993931	<s> حکومت	-0.30103
-2.5993931	<s> حکیم	-0.30103
-2.5993931	<s> حمزه	-0.30103
-2.5993931	<s> حاکم	-0.30103
-2.5993931	<s> حیرت	-0.30103
-2.5993931	<s> حوضچه	-0.30103
-2.5993931	<s> خاموش	-0.30103
-2.5993931	<s> خرچنگ	-0.30103
-2.5993931	<s> خداحافظ	-0.30103
-2.5993931	<s> خرگوش	-0.30103
-2.5993931	<s> خنثی	-0.30103
-2.5993931	<s> خطرناک	-0.30103
-2.5993931	<s> خوشایند	-0.30103
-2.5993931	<s> خودکامگی	-0.30103
-2.5993931	<s> خوراک	-0.30103
-2.5993931	<s> خونسرد	-0.30103
-2.5993931	<s> خصوصی	-0.30103
-2.5993931	<s> خرداد	-0.30103
-2.5993931	<s> دریا	-0.30103
-2.5993931	<s> دانشگاه	-0.30103
-2.5993931	<s> دادگاه	-0.30103
-2.5993931	<s> دادسرا	-0.30103
-2.5993931	<s> دعوت	-0.30103
-2.5993931	<s> دلتنگی	-0.30103
-2.5993931	<s> دلیر	-0.30103
-2.5993931	<s> دیدار	-0.30103
-2.5993931	<s> دشمن	-0.30103
-2.5993931	<s> دوبله	-0.30103
-2.5993931	<s> درد	-0.30103
-2.5993931	<s> دماوند	-0.30103
-2.5993931	<s> دوشنبه	-0.30103
-2.5993931	<s> ذهن	-0.30103
-2.5993931	<s> ذوب	-0.30103
-2.5993931	<s> رانش	-0.30103
-2.5993931	<s> ریاکار	-0.30103
-2.5993931	<s> رباخوار	-0.30103
-2.5993931	<s> راستی	-0.30103
-2.5993931	<s> رنگارنگ	-0.30103
-2.5993931	<s> رودخانه	-0.30103
-2.5993931	<s> رویا	-0.30103
-2.5993931	<s> رضایت	-0.30103
-2.5993931	<s> ریسک	-0.30103
-2.5993931	<s> ریحان	-0.30103
-2.5993931	<s> رهگذر	-0.30103
-2.5993931	<s> رهسپار	-0.30103
-2.5993931	<s> زراعت	-0.30103
-2.5993931	<s> زیبایی	-0.30103
-2.5993931	<s> زنجیر	-0.30103
-2.5993931	<s> زکاوت	-0.30103
-2.5993931	<s> زلال	-0.30103
-2.5993931	<s> سیاسی	-0.30103
-2.5993931	<s> ساختمان	-0.30103
-2.5993931	<s> سلامتی	-0.30103
-2.5993931	<s> سرمایه	-0.30103
-2.5993931	<s> سنجش	-0.30103
-2.5993931	<s> سخنران	-0.30103
-2.5993931	<s> سوگند	-0.30103
-2.5993931	<s> سپاسگزاری	-0.30103
-2.5993931	<s> سوگواری	-0.30103
-2.5993931	<s> سپید	-0.30103
-2.5993931	<s> سوادکوه	-0.30103
-2.5993931	<s> سیاهی	-0.30103
-2.5993931	<s> شهرستان	-0.30103
-2.5993931	<s> شایسته	-0.30103
-2.5993931	<s> شیراز	-0.30103
-2.5993931	<s> شادی	-0.30103
-2.5993931	<s> شناسنامه	-0.30103
-2.5993931	<s> شکارچی	-0.30103
-2.5993931	<s> شعر	-0.30103
-2.5993931	<s> شیرین	-0.30103
-2.5993931	<s> شریف	-0.30103
-2.5993931	<s> شنبه	-0.30103
-2.5993931	<s> شهریور	-0.30103
-2.5993931	<s> صبحانه	-0.30103
-2.5993931	<s> صاحب	-0.30103
-2.5993931	<s> صبر	-0.30103
-2.5993931	<s> صداقت	-0.30103
-2.5993931	<s> صورت	-0.30103
-2.5993931	<s> ضابطه	-0.30103
-2.5993931	<s> ضربه	-0.30103
-2.5993931	<s> ضامن	-0.30103
-2.5993931	<s> ضمانت	-0.30103
-2.5993931	<s> طبیب	-0.30103
-2.5993931	<s> طلبه	-0.30103
-2.5993931	<s> طوطی	-0.30103
-2.5993931	<s> طوفان	-0.30103
-2.5993931	<s> طناب	-0.30103
-2.5993931	<s> طنز	-0.30103
-2.5993931	<s> ظاهر	-0.30103
-2.5993931	<s> ظالم	-0.30103
-2.5993931	<s> ظرافت	-0.30103
-2.5993931	<s> غروب	-0.30103
-2.5993931	<s> غلبه	-0.30103
-2.5993931	<s> غیرت	-0.30103
-2.5993931	<s> غرور	-0.30103
-2.5993931	<s> غذا	-0.30103
-2.5993931	<s> عزیز	-0.30103
-2.5993931	<s> عزت	-0.30103
-2.5993931	<s> عشق	-0.30103
-2.5993931	<s> عرصه	-0.30103
-2.5993931	<s> عابر	-0.30103
-2.5993931	<s> عاقل	-0.30103
-2.5993931	<s> عکاس	-0.30103
-2.5993931	<s> عشایر	-0.30103
-2.5993931	<s> فرصت	-0.30103
-2.5993931	<s> عباس	-0.30103
-2.5993931	<s> عادل	-0.30103
-2.5993931	<s> عروسک	-0.30103
-2.5993931	<s> عطش	-0.30103
-2.5993931	<s> فوتبال	-0.30103
-2.5993931	<s> فاتح	-0.30103
-2.5993931	<s> فروردین	-0.30103
-2.5993931	<s> فیلم	-0.30103
-2.5993931	<s> قوت	-0.30103
-2.5993931	<s> قضاوت	-0.30103
-2.5993931	<s> قانع	-0.30103
-2.5993931	<s> قسمت	-0.30103
-2.5993931	<s> قهوه	-0.30103
-2.5993931	<s> قبیله	-0.30103
-2.5993931	<s> کودکان	-0.30103
-2.5993931	<s> کارگر	-0.30103
-2.5993931	<s> کمانچه	-0.30103
-2.5993931	<s> کعبه	-0.30103
-2.5993931	<s> گذرگاه	-0.30103
-2.5993931	<s> گسترش	-0.30103
-2.5993931	<s> گمشده	-0.30103
-2.5993931	<s> گوینده	-0.30103
-2.5993931	<s> گلایه	-0.30103
-2.5993931	<s> گوسفند	-0.30103
-2.5993931	<s> گارد	-0.30103
-2.5993931	<s> گیلان	-0.30103
-2.5993931	<s> گرسنه	-0.30103
-2.5993931	<s> لایق	-0.30103
-2.5993931	<s> لطیف	-0.30103
-2.5993931	<s> لیست	-0.30103
-2.5993931	<s> لرستان	-0.30103
-2.5993931	<s> لیلا	-0.30103
-2.5993931	<s> لارستان	-0.30103
-2.5993931	<s> لوله	-0.30103
-2.5993931	<s> موسیقی	-0.30103
-2.5993931	<s> موزیک	-0.30103
-2.5993931	<s> مورچه	-0.30103
-2.5993931	<s> مطالب	-0.30103
-2.5993931	<s> مشغول	-0.30103
-2.5993931	<s> معذور	-0.30103
-2.5993931	<s> محمد	-0.30103
-2.5993931	<s> مصطفی	-0.30103
-2.5993931	<s> مرضیه	-0.30103
-2.5993931	<s> مادر	-0.30103
-2.5993931	<s> مهربان	-0.30103
-2.5993931	<s> مدیترانه	-0.30103
-2.5993931	<s> منشور	-0.30103
-2.5993931	<s> مزاحمت	-0.30103
-2.5993931	<s> ممنون	-0.30103
-2.5993931	<s> معادن	-0.30103
-2.5993931	<s> مغرور	-0.30103
-2.5993931	<s> مصرف	-0.30103
-2.5993931	<s> مرداد	-0.30103
-2.5993931	<s> موج	-0.30103
-2.5993931	<s> مصدوم	-0.30103
-2.5993931	<s> مثلث	-0.30103
-2.5993931	<s> نجیب	-0.30103
-2.5993931	<s> نگاه	-0.30103
-2.5993931	<s> نیکان	-0.30103
-2.5993931	<s> نگرش	-0.30103
-2.5993931	<s> نادان	-0.30103
-2.5993931	<s> نیاکان	-0.30103
-2.5993931	<s> نهر	-0.30103
-2.3780308	<s> نغمه	-0.30103
-2.5993931	<s> ناجا	-0.30103
-2.5993931	<s> نجابت	-0.30103
-2.5993931	<s> نظام	-0.30103
-2.5993931	<s> نشاط	-0.30103
-2.5993931	<s> نقاش	-0.30103
-2.5993931	<s> نظارت	-0.30103
-2.5993931	<s> واقعی	-0.30103
-2.5993931	<s> واردات	-0.30103
-2.5993931	<s> واجب	-0.30103
-2.5993931	<s> واریزی	-0.30103
-2.5993931	<s> وعده	-0.30103
-2.5993931	<s> وفاداری	-0.30103
-2.5993931	<s> وضعیت	-0.30103
-2.5993931	<s> ورزش	-0.30103
-2.5993931	<s> وزارت	-0.30103
-2.5993931	<s> وسایل	-0.30103
-2.5993931	<s> وکیل	-0.30103
-2.5993931	<s> وظیفه	-0.30103
-2.5993931	<s> ورود	-0.30103
-2.5993931	<s> همایش	-0.30103
-2.5993931	<s> همراهی	-0.30103
-2.3780308	<s> هوشمند	-0.30103
-2.5993931	<s> هماهنگ	-0.30103
-2.5993931	<s> هندسه	-0.30103
-2.5993931	<s> هادی	-0.30103
-2.5993931	<s> همت	-0.30103
-2.5993931	<s> هستی	-0.30103
-2.5993931	<s> هنگام	-0.30103
-2.5993931	<s> هدایت	-0.30103
-2.5993931	<s> یادداشت	-0.30103
-2.5993931	<s> یورش	-0.30103
-2.5993931	<s> یکشنبه	-0.30103
-2.5993931	<s> یونان	-0.30103
-2.5993931	<s> یلدا	-0.30103
-2.5993931	<s> ییلاق	-0.30103
-2.5993931	<s> یادگار	-0.30103
-2.5993931	<s> یکتا	-0.30103
-2.5993931	<s> یگانه	-0.30103
-2.5993931	<s> یقین	-0.30103

\3-grams:
-0.05820054	<s> آموزش </s>	0
-0.05820054	<s> آرزو </s>	0
-0.05820054	<s> امیدوار </s>	0
-0.05820054	<s> اعتماد </s>	0
-0.05820054	<s> اقتصادی </s>	0
-0.05820054	<s> استقلال </s>	0
-0.05820054	<s> انرژی </s>	0
-0.05820054	<s> اندیشه </s>	0
-0.05820054	<s> اصفهان </s>	0
-0.05820054	<s> ارتش </s>	0
-0.05820054	<s> اسرار </s>	0
-0.05820054	<s> ارتفاع </s>	0
-0.05820054	<s> ارتحال </s>	0
-0.05820054	<s> اعلام </s>	0
-0.05820054	<s> اندازه </s>	0
-0.05820054	<s> افزایش </s>	0
-0.05820054	<s> اهریمن </s>	0
-0.05820054	<s> ارادت </s>	0
-0.05820054	<s> اماکن </s>	0
-0.05820054	<s> ارتقا </s>	0
-0.05820054	<s> اینترنت </s>	0
-0.05820054	<s> اجتماعی </s>	0
-0.05820054	<s> اشتغال </s>	0
-0.05820054	<s> اردیبهشت </s>	0
-0.05820054	<s> آبان </s>	0
-0.05820054	<s> آذر </s>	0
-0.05820054	<s> اسفند </s>	0
-0.05820054	<s> بانک </s>	0
-0.05820054	<s> برخورد </s>	0
-0.05820054	<s> بزرگان </s>	0
-0.05820054	<s> بیعانه </s>	0
-0.05820054	<s> بازنویسی </s>	0
-0.05820054	<s> بازار </s>	0
-0.05820054	<s> بیمارستان </s>	0
-0.05820054	<s> بیهوده </s>	0
-0.05820054	<s> بیگانه </s>	0
-0.05820054	<s> بیننده </s>	0
-0.05820054	<s> بازخواست </s>	0
-0.05820054	<s> بازداشت </s>	0
-0.05820054	<s> باند </s>	0
-0.05820054	<s> باران </s>	0
-0.05820054	<s> بورس </s>	0
-0.05820054	<s> بیداد </s>	0
-0.05820054	<s> بهمن </s>	0
-0.05820054	<s> پذیرش </s>	0
-0.05820054	<s> پرواز </s>	0
-0.05820054	<s> پروژه </s>	0
-0.05820054	<s> پژوهش </s>	0
-0.05820054	<s> پرسپولیس </s>	0
-0.05820054	<s> پیامک </s>	0
-0.05820054	<s> پاداش </s>	0
-0.05820054	<s> پیشنهاد </s>	0
-0.05820054	<s> پیدایش </s>	0
-0.05820054	<s> پدیده </s>	0
-0.05820054	<s> پنجشنبه </s>	0
-0.05820054	<s> تعریف </s>	0
-0.05820054	<s> توصیه </s>	0
-0.05820054	<s> تلاش </s>	0
-0.05820054	<s> تندیس </s>	0
-0.05820054	<s> تابلو </s>	0
-0.05820054	<s> ترازو </s>	0
-0.05820054	<s> تفنگ </s>	0
-0.05820054	<s> تدوین </s>	0
-0.05820054	<s> تورم </s>	0
-0.05820054	<s> تمرین </s>	0
-0.05820054	<s> تگرگ </s>	0
-0.05820054	<s> تثبیت </s>	0
-0.05820054	<s> ثریا </s>	0
-0.05820054	<s> تهران </s>	0
-0.05820054	<s> ثروتمند </s>	0
-0.05820054	<s> ثابت </s>	0
-0.05820054	<s> جمهوری </s>	0
-0.05820054	<s> جوانان </s>	0
-0.05820054	<s> جشنواره </s>	0
-0.05820054	<s> جنایت </s>	0
-0.05820054	<s> جالب </s>	0
-0.05820054	<s> جریان </s>	0
-0.05820054	<s> جمعه </s>	0
-0.05820054	<s> چالش </s>	0
-0.05820054	<s> چلچراغ </s>	0
-0.05820054	<s> چرمی </s>	0
-0.05820054	<s> چرخش </s>	0
-0.05820054	<s> چهره </s>	0
-0.05820054	<s> چشمه </s>	0
-0.05820054	<s> حقیقت </s>	0
-0.05820054	<s> حضوری </s>	0
-0.05820054	<s> حسادت </s>	0
-0.05820054	<s> حریص </s>	0
-0.05820054	<s> حلال </s>	0
-0.05820054	<s> حکومت </s>	0
-0.05820054	<s> حکیم </s>	0
-0.05820054	<s> حمزه </s>	0
-0.05820054	<s> حاکم </s>	0
-0.05820054	<s> حیرت </s>	0
-0.05820054	<s> حوضچه </s>	0
-0.05820054	<s> خاموش </s>	0
-0.05820054	<s> خرچنگ </s>	0
-0.05820054	<s> خداحافظ </s>	0
-0.05820054	<s> خرگوش </s>	0
-0.05820054	<s> خنثی </s>	0
-0.05820054	<s> خطرناک </s>	0
-0.05820054	<s> خوشایند </s>	0
-0.05820054	<s> خودکامگی </s>	0
-0.05820054	<s> خوراک </s>	0
-0.05820054	<s> خونسرد </s>	0
-0.05820054	<s> خصوصی </s>	0
-0.05820054	<s> خرداد </s>	0
-0.05820054	<s> دریا </s>	0
-0.05820054	<s> دانشگاه </s>	0
-0.05820054	<s> دادگاه </s>	0
-0.05820054	<s> دادسرا </s>	0
-0.05820054	<s> دعوت </s>	0
-0.05820054	<s> دلتنگی </s>	0
-0.05820054	<s> دلیر </s>	0
-0.05820054	<s> دیدار </s>	0
-0.05820054	<s> دشمن </s>	0
-0.05820054	<s> دوبله </s>	0
-0.05820054	<s> درد </s>	0
-0.05820054	<s> دماوند </s>	0
-0.05820054	<s> دوشنبه </s>	0
-0.05820054	<s> ذهن </s>	0
-0.05820054	<s> ذوب </s>	0
-0.05820054	<s> رانش </s>	0
-0.05820054	<s> ریاکار </s>	0
-0.05820054	<s> رباخوار </s>	0
-0.05820054	<s> راستی </s>	0
-0.05820054	<s> رنگارنگ </s>	0
-0.05820054	<s> رودخانه </s>	0
-0.05820054	<s> رویا </s>	0
-0.05820054	<s> رضایت </s>	0
-0.05820054	<s> ریسک </s>	0
-0.05820054	<s> ریحان </s>	0
-0.05820054	<s> رهگذر </s>	0
-0.05820054	<s> رهسپار </s>	0
-0.05820054	<s> زراعت </s>	0
-0.05820054	<s> زیبایی </s>	0
-0.05820054	<s> زنجیر </s>	0
-0.05820054	<s> زکاوت </s>	0
-0.05820054	<s> زلال </s>	0
-0.05820054	<s> سیاسی </s>	0
-0.05820054	<s> ساختمان </s>	0
-0.05820054	<s> سلامتی </s>	0
-0.05820054	<s> سرمایه </s>	0
-0.05820054	<s> سنجش </s>	0
-0.05820054	<s> سخنران </s>	0
-0.05820054	<s> سوگند </s>	0
-0.05820054	<s> سپاسگزاری </s>	0
-0.05820054	<s> سوگواری </s>	0
-0.05820054	<s> سپید </s>	0
-0.05820054	<s> سوادکوه </s>	0
-0.05820054	<s> سیاهی </s>	0
-0.05820054	<s> شهرستان </s>	0
-0.05820054	<s> شایسته </s>	0
-0.05820054	<s> شیراز </s>	0
-0.05820054	<s> شادی </s>	0
-0.05820054	<s> شناسنامه </s>	0
-0.05820054	<s> شکارچی </s>	0
-0.05820054	<s> شعر </s>	0
-0.05820054	<s> شیرین </s>	0
-0.05820054	<s> شریف </s>	0
-0.05820054	<s> شنبه </s>	0
-0.05820054	<s> شهریور </s>	0
-0.05820054	<s> صبحانه </s>	0
-0.05820054	<s> صاحب </s>	0
-0.05820054	<s> صبر </s>	0
-0.05820054	<s> صداقت </s>	0
-0.05820054	<s> صورت </s>	0
-0.05820054	<s> ضابطه </s>	0
-0.05820054	<s> ضربه </s>	0
-0.05820054	<s> ضامن </s>	0
-0.05820054	<s> ضمانت </s>	0
-0.05820054	<s> طبیب </s>	0
-0.05820054	<s> طلبه </s>	0
-0.05820054	<s> طوطی </s>	0
-0.05820054	<s> طوفان </s>	0
-0.05820054	<s> طناب </s>	0
-0.05820054	<s> طنز </s>	0
-0.05820054	<s> ظاهر </s>	0
-0.05820054	<s> ظالم </s>	0
-0.05820054	<s> ظرافت </s>	0
-0.05820054	<s> غروب </s>	0
-0.05820054	<s> غلبه </s>	0
-0.05820054	<s> غیرت </s>	0
-0.05820054	<s> غرور </s>	0
-0.05820054	<s> غذا </s>	0
-0.05820054	<s> عزیز </s>	0
-0.05820054	<s> عزت </s>	0
-0.05820054	<s> عشق </s>	0
-0.05820054	<s> عرصه </s>	0
-0.05820054	<s> عابر </s>	0
-0.05820054	<s> عاقل </s>	0
-0.05820054	<s> عکاس </s>	0
-0.05820054	<s> عشایر </s>	0
-0.05820054	<s> فرصت </s>	0
-0.05820054	<s> عباس </s>	0
-0.05820054	<s> عادل </s>	0
-0.05820054	<s> عروسک </s>	0
-0.05820054	<s> عطش </s>	0
-0.05820054	<s> فوتبال </s>	0
-0.05820054	<s> فاتح </s>	0
-0.05820054	<s> فروردین </s>	0
-0.05820054	<s> فیلم </s>	0
-0.05820054	<s> قوت </s>	0
-0.05820054	<s> قضاوت </s>	0
-0.05820054	<s> قانع </s>	0
-0.05820054	<s> قسمت </s>	0
-0.05820054	<s> قهوه </s>	0
-0.05820054	<s> قبیله </s>	0
-0.05820054	<s> کودکان </s>	0
-0.05820054	<s> کارگر </s>	0
-0.05820054	<s> کمانچه </s>	0
-0.05820054	<s> کعبه </s>	0
-0.05820054	<s> گذرگاه </s>	0
-0.05820054	<s> گسترش </s>	0
-0.05820054	<s> گمشده </s>	0
-0.05820054	<s> گوینده </s>	0
-0.05820054	<s> گلایه </s>	0
-0.05820054	<s> گوسفند </s>	0
-0.05820054	<s> گارد </s>	0
-0.05820054	<s> گیلان </s>	0
-0.05820054	<s> گرسنه </s>	0
-0.05820054	<s> لایق </s>	0
-0.05820054	<s> لطیف </s>	0
-0.05820054	<s> لیست </s>	0
-0.05820054	<s> لرستان </s>	0
-0.05820054	<s> لیلا </s>	0
-0.05820054	<s> لارستان </s>	0
-0.05820054	<s> لوله </s>	0
-0.05820054	<s> موسیقی </s>	0
-0.05820054	<s> موزیک </s>	0
-0.05820054	<s> مورچه </s>	0
-0.05820054	<s> مطالب </s>	0
-0.05820054	<s> مشغول </s>	0
-0.05820054	<s> معذور </s>	0
-0.05820054	<s> محمد </s>	0
-0.05820054	<s> مصطفی </s>	0
-0.05820054	<s> مرضیه </s>	0
-0.05820054	<s> مادر </s>	0
-0.05820054	<s> مهربان </s>	0
-0.05820054	<s> مدیترانه </s>	0
-0.05820054	<s> منشور </s>	0
-0.05820054	<s> مزاحمت </s>	0
-0.05820054	<s> ممنون </s>	0
-0.05820054	<s> معادن </s>	0
-0.05820054	<s> مغرور </s>	0
-0.05820054	<s> مصرف </s>	0
-0.05820054	<s> مرداد </s>	0
-0.05820054	<s> موج </s>	0
-0.05820054	<s> مصدوم </s>	0
-0.05820054	<s> مثلث </s>	0
-0.05820054	<s> نجیب </s>	0
-0.05820054	<s> نگاه </s>	0
-0.05820054	<s> نیکان </s>	0
-0.05820054	<s> نگرش </s>	0
-0.05820054	<s> نادان </s>	0
-0.05820054	<s> نیاکان </s>	0
-0.05820054	<s> نهر </s>	0
-0.05820054	<s> نغمه </s>	0
-0.05820054	<s> ناجا </s>	0
-0.05820054	<s> نجابت </s>	0
-0.05820054	<s> نظام </s>	0
-0.05820054	<s> نشاط </s>	0
-0.05820054	<s> نقاش </s>	0
-0.05820054	<s> نظارت </s>	0
-0.05820054	<s> واقعی </s>	0
-0.05820054	<s> واردات </s>	0
-0.05820054	<s> واجب </s>	0
-0.05820054	<s> واریزی </s>	0
-0.05820054	<s> وعده </s>	0
-0.05820054	<s> وفاداری </s>	0
-0.05820054	<s> وضعیت </s>	0
-0.05820054	<s> ورزش </s>	0
-0.05820054	<s> وزارت </s>	0
-0.05820054	<s> وسایل </s>	0
-0.05820054	<s> وکیل </s>	0
-0.05820054	<s> وظیفه </s>	0
-0.05820054	<s> ورود </s>	0
-0.05820054	<s> همایش </s>	0
-0.05820054	<s> همراهی </s>	0
-0.05820054	<s> هوشمند </s>	0
-0.05820054	<s> هماهنگ </s>	0
-0.05820054	<s> هندسه </s>	0
-0.05820054	<s> هادی </s>	0
-0.05820054	<s> همت </s>	0
-0.05820054	<s> هستی </s>	0
-0.05820054	<s> هنگام </s>	0
-0.05820054	<s> هدایت </s>	0
-0.05820054	<s> یادداشت </s>	0
-0.05820054	<s> یورش </s>	0
-0.05820054	<s> یکشنبه </s>	0
-0.05820054	<s> یونان </s>	0
-0.05820054	<s> یلدا </s>	0
-0.05820054	<s> ییلاق </s>	0
-0.05820054	<s> یادگار </s>	0
-0.05820054	<s> یکتا </s>	0
-0.05820054	<s> یگانه </s>	0
-0.05820054	<s> یقین </s>	0

\4-grams:

\5-grams:

\end\
